Layer 0:
Weights (784x512):
 [[ 0.00425085  0.02176274  0.00185199 ...  0.05753079 -0.05873149
   0.03011012]
 [-0.00686102 -0.00940624  0.0057193  ... -0.02151744 -0.04918059
  -0.0186433 ]
 [-0.05596276  0.0459997   0.06774637 ... -0.03581164  0.02806445
  -0.05314137]
 ...
 [-0.01967264 -0.017122    0.02614835 ...  0.05856961 -0.02807699
  -0.01640509]
 [-0.06590389 -0.05910961  0.00052281 ...  0.01786447  0.02553518
   0.00247596]
 [-0.01755526  0.0534872  -0.05251076 ...  0.01406732  0.06670201
  -0.0555443 ]]
Bias (1x512):
 [ 1.48027502e-02  1.14170080e-02 -4.20205109e-02 -3.30537446e-02
 -3.70138581e-03  1.10341692e-02 -4.86482829e-02  1.54059529e-02
 -1.50859104e-02  2.97102425e-03 -4.84729297e-02 -1.35541055e-02
 -3.51640321e-02 -4.60687801e-02  1.79139003e-02 -3.08470670e-02
 -7.88035393e-02  1.34025440e-02 -1.34581886e-02  1.49125103e-02
 -6.59035402e-04 -1.58175044e-02 -4.71088998e-02  9.32774600e-03
 -4.20772433e-02 -1.28192622e-02  8.00743047e-03  2.76467316e-02
 -1.45474067e-02 -8.78943130e-03 -4.41901898e-03 -7.21667754e-03
 -8.61788318e-02 -4.99056317e-02 -2.18529738e-02 -2.27067880e-02
  9.96444724e-04 -1.24231102e-02 -2.00154949e-02 -2.92989016e-02
 -6.12878092e-02 -5.72895743e-02 -4.72965837e-02 -2.10590586e-02
 -2.32342016e-02 -2.47493219e-02  6.90935692e-03 -7.91972317e-03
 -4.73416075e-02  1.09004462e-02  2.24800594e-02 -5.09191938e-02
  2.89524365e-02 -4.13750485e-02 -5.24485633e-02 -3.27153280e-02
 -3.15241814e-02 -2.17262227e-02 -9.25201830e-03 -1.15473999e-03
  1.73843279e-02 -1.42701073e-02 -8.21591169e-02 -5.20407557e-02
 -1.30243627e-02 -5.19419909e-02  5.83437970e-03 -1.00155817e-02
  1.56686213e-02  2.43234802e-02 -1.19650634e-02 -2.85486365e-03
 -6.54673129e-02 -4.75661829e-02 -7.45518273e-03 -6.49811476e-02
  3.89767736e-02  6.74299672e-02 -2.00685821e-02  4.49760705e-02
 -5.99687770e-02 -3.84562798e-02 -8.83394554e-02  1.08343177e-02
  2.17983015e-02 -2.33825166e-02 -4.95831296e-02 -9.89368744e-03
 -8.32583848e-03 -2.12387238e-02 -8.60698894e-03 -2.86332890e-02
 -3.58664282e-02  1.00455629e-02 -1.29072042e-02  1.20179653e-02
 -8.39665625e-03 -1.65113043e-02 -4.96272184e-03 -9.80993733e-03
 -2.59610196e-03 -3.54052596e-02 -2.97847223e-02  7.68498471e-03
  1.72151066e-02 -8.31652805e-03 -2.62726210e-02 -4.65335045e-03
 -1.70861068e-03 -2.58827582e-02 -8.26356858e-02 -3.04666236e-02
  1.37069635e-02 -2.51971856e-02 -1.95937436e-02 -3.06735579e-02
  5.26909833e-04  2.43853536e-02 -4.54764962e-02  6.27990626e-03
 -5.64139895e-02 -1.92549787e-02 -6.69545606e-02 -4.33737040e-02
 -4.85250391e-02 -2.77386624e-02  1.14960095e-03 -1.08771985e-02
 -2.00231001e-02 -4.22495343e-02 -2.10499391e-02 -3.69192883e-02
 -1.41739948e-02 -6.46296516e-03 -5.25765005e-04 -2.94458657e-03
  2.99991574e-02  1.06565189e-02  2.68337573e-03 -1.57102589e-02
 -3.20446603e-02 -6.92935009e-03  1.24963215e-02 -4.29871827e-02
  1.82115603e-02 -4.85984492e-05  3.54070636e-03  1.49371773e-02
 -2.76120324e-02 -7.46866688e-03  3.31793949e-02  3.68464254e-02
 -2.61063557e-02  3.46339890e-03 -5.09902602e-04 -4.34783623e-02
 -3.48005928e-02 -1.64270159e-02  2.13998668e-02  5.08720172e-04
 -7.83096813e-03 -2.50552706e-02 -4.17367518e-02 -4.56844121e-02
  9.75021068e-03 -5.25430255e-02 -2.22242363e-02 -2.39455258e-03
  9.23095085e-03 -2.71831248e-02 -5.92212640e-02  3.60614881e-02
 -3.49663831e-02 -5.61217703e-02 -5.30043356e-02 -7.20744208e-03
 -3.24059017e-02  4.32706028e-02 -8.98141693e-03  6.61135977e-03
 -2.82808729e-02  1.52664259e-03 -1.76292006e-02 -1.16044963e-02
  6.75448170e-03 -4.24647667e-02  3.27263214e-03 -4.01448235e-02
 -4.29950692e-02 -4.91297059e-02  1.90634199e-03 -4.05738987e-02
 -4.01262455e-02  3.06563545e-02 -2.75378693e-02 -2.98490915e-02
 -2.69000996e-02 -1.76476699e-03 -8.18372704e-03 -5.78956865e-02
  2.81942487e-02  5.86153567e-03 -1.92899648e-02 -2.81481519e-02
 -1.25827976e-02 -4.95135002e-02 -3.76999639e-02 -3.67407985e-02
  5.17304172e-04  2.65579298e-02 -3.77228193e-04 -8.30474775e-03
  3.27913649e-02 -5.68656735e-02  2.97536533e-02 -3.26435007e-02
 -1.07512902e-02 -2.50420012e-02 -8.11524540e-02 -1.33142797e-02
  6.20182045e-03 -1.36028919e-02 -5.26030362e-02 -3.31739075e-02
 -4.49727178e-02 -2.92903115e-03  7.72467023e-03 -5.74718900e-02
  7.88033754e-03  2.67335512e-02 -1.36532215e-02 -9.16390738e-04
  3.24762352e-02 -5.66170774e-02  4.26671021e-02 -2.74699498e-02
 -2.59452350e-02 -8.40773247e-03 -3.69397886e-02 -1.28410403e-02
 -4.48834784e-02  4.71542701e-02 -6.38977885e-02  1.02991716e-03
  2.02408377e-02  7.19686225e-03  1.79858692e-03 -3.10989264e-02
  2.16919780e-02  5.26158884e-03 -8.23387727e-02  1.41286766e-02
 -5.03215007e-03 -1.23907682e-02 -4.12236452e-02 -3.15736351e-03
  3.09399683e-02 -8.63946788e-03 -4.47684675e-02  1.49575379e-02
  1.69920791e-02 -3.30610573e-02  1.48012824e-02 -1.45100681e-02
 -7.98924360e-03  3.11589148e-02 -7.50418380e-03 -1.47961192e-02
  1.50885163e-02  2.30152644e-02 -6.51497319e-02 -6.09334931e-02
 -1.26311500e-02  1.38341878e-02 -5.29837646e-02 -3.73801147e-03
 -1.10802548e-02 -4.18678373e-02 -1.30897947e-02  1.53029505e-02
 -3.72596644e-02 -6.99605122e-02  8.05658940e-03  8.37462619e-02
  1.02135222e-02  4.24954407e-02  5.87989623e-03 -4.51230407e-02
  3.90070528e-02 -3.04090455e-02 -1.23655805e-02 -2.63609625e-02
 -2.41766833e-02 -5.31763658e-02 -1.87103748e-02 -1.04468409e-02
 -1.62702426e-02  7.38760876e-03 -1.36717716e-02 -4.00868664e-03
 -4.79072332e-02 -1.14607941e-02  1.53475655e-02 -3.99718918e-02
 -2.79596914e-02 -6.94330549e-03 -5.65877371e-02 -4.05036323e-02
 -4.92555089e-02  1.61775369e-02 -3.95203941e-04 -5.65077290e-02
  1.66648012e-02  2.17882339e-02 -2.19068676e-02 -2.11409498e-02
 -2.36405265e-02  1.66863240e-02 -8.28793552e-03 -5.47996685e-02
 -4.73420992e-02 -3.27785756e-03 -7.23385718e-03 -4.26643193e-02
 -4.90320195e-03  3.25456783e-02 -7.15953410e-02 -2.36000381e-02
  2.68047061e-02  1.78633386e-03  1.21908514e-02  1.40365446e-02
  3.98816867e-03  8.92909896e-03  3.42665911e-02 -4.90541905e-02
  6.59371167e-02 -2.47946158e-02 -6.31024688e-02 -4.86076958e-02
 -7.08964840e-02 -1.41148502e-02 -9.36305821e-02  5.18033979e-03
 -6.63672239e-02 -2.84456033e-02 -6.99397773e-02 -3.89554910e-02
  1.30509399e-02 -4.51080166e-02 -1.28802229e-02 -4.75532971e-02
  2.13296618e-02 -3.06380615e-02  9.58392769e-03 -1.46339545e-02
 -3.92053882e-03  5.77484146e-02 -3.45945321e-02 -4.95487154e-02
 -1.54031431e-02 -3.25345173e-02  4.26034778e-02 -4.82410789e-02
 -3.57618183e-02 -1.49210300e-02  1.12428069e-02 -2.45071370e-02
 -2.60626078e-02 -5.02636172e-02 -5.55247813e-03 -3.91353890e-02
 -4.35489938e-02 -2.54135076e-02 -3.97490002e-02 -1.20823011e-02
 -6.04856275e-02 -1.36101656e-02 -1.86525322e-02  8.54271464e-03
  5.99524518e-03 -3.37780677e-02  4.55007553e-02 -4.29378189e-02
 -3.32681090e-02 -6.94106445e-02 -4.61655632e-02 -6.56905100e-02
 -6.14306144e-02  2.12155245e-02 -6.95010722e-02  1.83352281e-03
 -2.86036842e-02 -4.19967696e-02  6.90278225e-03 -4.86928411e-02
 -4.52668406e-02 -2.14830064e-03 -2.42834110e-02 -6.28700629e-02
 -3.50527763e-02 -2.15131957e-02 -1.74200032e-02  7.66617851e-03
 -7.96995359e-04  1.51107553e-03  2.86875926e-02 -5.76458909e-02
 -5.07567031e-03 -2.77242605e-02  1.17151886e-02 -4.57086228e-02
 -1.45297358e-02 -4.78241891e-02 -3.19734798e-03 -4.01698351e-02
 -1.24658309e-02 -4.38777469e-02 -8.30856059e-03 -1.93902832e-02
 -7.93220010e-03 -1.09903226e-02 -2.08402053e-02 -6.18045889e-02
 -9.38364677e-03  6.36046194e-03 -8.92608985e-03 -9.43847559e-03
 -3.24820913e-02 -3.56993042e-02 -1.62512753e-02 -5.91602325e-02
 -1.03578214e-02 -1.92636289e-02 -6.67752251e-02 -1.55777670e-02
  2.33749952e-02 -4.79583479e-02 -9.17565252e-04 -2.75419839e-02
 -2.76609119e-02 -2.63530314e-02  4.79750335e-04  4.78961542e-02
 -1.99854374e-02 -5.12477383e-02 -3.18221487e-02  2.32214909e-02
 -4.00914736e-02 -2.95722708e-02  3.41911949e-02 -3.89385124e-04
 -1.98005419e-02 -2.96767503e-02  1.45923579e-02 -3.41999829e-02
  2.58293916e-02 -4.04577665e-02 -5.41419536e-03 -2.33828146e-02
 -4.27728221e-02  1.25061758e-02  2.56177522e-02 -4.88547347e-02
 -1.06738269e-01 -1.03352582e-02 -1.04424227e-02 -1.13505581e-02
  7.54598575e-03 -2.70802137e-02 -2.66071297e-02  1.70456134e-02
  4.71378351e-03  1.19983056e-03 -2.53962465e-02 -1.52770225e-02
  3.07927635e-02 -3.12240552e-02 -4.46452834e-02  5.55959065e-03
 -6.52565761e-03  4.84541664e-03 -4.57713008e-02 -2.49278937e-02
 -3.24935988e-02 -3.77054326e-02 -2.88749356e-02 -3.30896378e-02
 -6.61594197e-02 -1.59877427e-02 -2.60430630e-02  5.82336523e-02
 -1.84216462e-02 -1.06450999e-02 -1.47894677e-02 -4.91195060e-02
 -7.22468495e-02  2.64060125e-03 -3.33418101e-02 -4.98674437e-02
  7.03336718e-03 -1.06049823e-02  5.35248630e-02 -6.88873604e-03
 -1.76794808e-02 -3.40710916e-02  1.84832804e-03  7.26490631e-04
  2.54198294e-02 -3.78522836e-02 -3.93603742e-03 -1.01984525e-02]